svm_type c_svc
kernel_type linear
nr_class 2
total_sv 57
rho -43.23719148952272
label 0 1
nr_sv 29 28
SV
1.0 1:285.61 2:29.16 3:54.0 4:18.91 5:169.0 6:173.0 7:69.0 8:168.0 9:178.16 10:183.12 
1.0 1:278.89 2:28.09 3:53.0 4:19.0 5:167.0 6:183.0 7:61.0 8:168.28 9:170.09 10:159.95 
1.0 1:289.0 2:36.0 3:60.0 4:20.76 5:170.0 6:173.0 7:48.0 8:166.63 9:171.49 10:178.21 
1.0 1:289.0 2:28.09 3:53.0 4:18.34 5:170.0 6:186.0 7:67.0 8:183.64 9:161.85 10:181.13 
1.0 1:268.96 2:26.01 3:51.0 4:18.96 5:164.0 6:170.0 7:70.0 8:162.26 9:164.63 10:155.21 
1.0 1:268.96 2:33.64 3:58.0 4:21.56 5:164.0 6:185.0 7:67.0 8:184.51 9:167.25 10:164.34 
1.0 1:275.56 2:32.49 3:57.0 4:20.69 5:166.0 6:171.0 7:68.0 8:182.82 9:172.71 10:189.04 
1.0 1:302.76 2:31.36 3:56.0 4:18.5 5:174.0 6:170.0 7:65.0 8:173.57 9:173.42 10:186.75 
1.0 1:285.61 2:31.36 3:56.0 4:19.61 5:169.0 6:173.0 7:60.0 8:170.0 9:163.84 10:173.95 
0.8316586051951811 1:256.0 2:32.49 3:57.0 4:22.27 5:160.0 6:155.0 7:65.0 8:174.32 9:169.19 10:161.39 
0.5477673588932074 1:272.25 2:28.09 3:53.0 4:19.47 5:165.0 6:179.0 7:54.0 8:177.17 9:173.98 10:185.31 
1.0 1:292.41 2:30.25 3:55.0 4:18.81 5:171.0 6:175.0 7:53.0 8:169.74 9:174.82 10:180.05 
0.18465194673330168 1:268.96 2:23.04 3:48.0 4:17.85 5:164.0 6:170.0 7:68.5 8:160.05 9:180.7 10:169.07 
1.0 1:272.25 2:24.01 3:49.0 4:18.0 5:165.0 6:160.0 7:63.0 8:176.58 9:171.52 10:189.83 
1.0 1:289.0 2:30.25 3:55.0 4:19.03 5:170.0 6:174.0 7:64.0 8:178.35 9:167.2 10:186.31 
0.7130256251525695 1:265.69 2:30.25 3:55.0 4:20.7 5:163.0 6:178.0 7:55.0 8:153.25 9:166.61 10:187.97 
1.0 1:285.61 2:23.04 3:48.0 4:16.81 5:169.0 6:178.0 7:70.0 8:171.31 9:170.67 10:158.29 
1.0 1:299.29 2:40.96 3:64.0 4:21.38 5:173.0 6:170.0 7:46.0 8:186.05 9:174.46 10:157.92 
1.0 1:256.0 2:44.89 3:67.0 4:26.17 5:160.0 6:162.0 7:60.0 8:172.69 9:168.63 10:157.99 
1.0 1:282.24 2:23.04 3:48.0 4:17.01 5:168.0 6:174.0 7:50.0 8:167.23 9:172.52 10:181.09 
1.0 1:262.44 2:27.04 3:52.0 4:19.81 5:162.0 6:155.0 7:84.0 8:165.82 9:177.25 10:159.23 
1.0 1:275.56 2:30.25 3:55.0 4:19.96 5:166.0 6:180.0 7:48.0 8:192.27 9:170.33 10:189.01 
0.1303988800277097 1:268.96 2:21.16 3:46.0 4:17.1 5:164.0 6:171.0 7:83.0 8:166.74 9:168.02 10:155.15 
1.0 1:299.29 2:29.16 3:54.0 4:18.04 5:173.0 6:170.0 7:60.0 8:196.25 9:171.83 10:177.75 
1.0 1:282.24 2:28.09 3:53.0 4:18.78 5:168.0 6:174.0 7:65.0 8:158.24 9:182.14 10:180.81 
0.6221873177463499 1:265.69 2:32.49 3:57.0 4:21.45 5:163.0 6:190.0 7:70.0 8:158.21 9:173.55 10:165.52 
1.0 1:278.89 2:30.25 3:55.0 4:19.72 5:167.0 6:183.0 7:80.0 8:175.43 9:171.13 10:178.46 
1.0 1:268.96 2:30.25 3:55.0 4:20.45 5:164.0 6:172.0 7:62.0 8:172.76 9:173.94 10:163.09 
1.0 1:282.24 2:32.49 3:57.0 4:20.2 5:168.0 6:177.0 7:66.0 8:186.3 9:177.49 10:165.02 
-1.0 1:272.25 2:42.25 3:65.0 4:23.88 5:165.0 6:170.0 7:65.0 8:178.84 9:164.53 10:172.86 
-1.0 1:289.0 2:26.01 3:51.0 4:17.65 5:170.0 6:178.0 7:65.0 8:161.26 9:175.65 10:188.54 
-1.0 1:289.0 2:25.0 3:50.0 4:17.3 5:170.0 6:174.0 7:55.0 8:173.28 9:176.18 10:187.63 
-1.0 1:285.61 2:33.64 3:58.0 4:20.31 5:169.0 6:175.0 7:65.0 8:168.34 9:168.11 10:180.14 
-1.0 1:282.24 2:27.04 3:52.0 4:18.42 5:168.0 6:177.0 7:50.0 8:160.45 9:169.94 10:158.51 
-1.0 1:275.56 2:33.64 3:58.0 4:21.05 5:166.0 6:160.0 7:65.0 8:160.18 9:165.47 10:188.03 
-0.09719402286645693 1:282.24 2:43.56 3:66.0 4:23.38 5:168.0 6:173.0 7:68.0 8:186.4 9:175.89 10:190.85 
-1.0 1:272.25 2:38.44 3:62.0 4:22.77 5:165.0 6:170.0 7:77.0 8:185.77 9:170.31 10:169.73 
-1.0 1:282.24 2:25.0 3:50.0 4:17.72 5:168.0 6:160.0 7:68.0 8:166.99 9:176.68 10:165.38 
-1.0 1:272.25 2:36.0 3:60.0 4:22.04 5:165.0 6:174.0 7:66.0 8:183.58 9:175.26 10:160.16 
-0.3134639144228191 1:292.41 2:28.09 3:53.0 4:18.13 5:171.0 6:178.0 7:68.0 8:170.81 9:173.13 10:160.55 
-0.6190317964590376 1:289.0 2:29.16 3:54.0 4:18.69 5:170.0 6:165.0 7:71.0 8:174.03 9:169.2 10:173.19 
-1.0 1:272.25 2:28.09 3:53.0 4:19.47 5:165.0 6:178.0 7:47.5 8:183.31 9:165.81 10:191.18 
-1.0 1:289.0 2:30.25 3:55.0 4:19.03 5:170.0 6:180.0 7:70.0 8:166.01 9:174.05 10:168.68 
-1.0 1:278.89 2:25.0 3:50.0 4:17.93 5:167.0 6:176.0 7:52.0 8:175.11 9:168.44 10:190.66 
-1.0 1:282.24 2:28.09 3:53.0 4:18.78 5:168.0 6:175.0 7:60.0 8:166.93 9:172.93 10:181.84 
-1.0 1:295.84 2:25.0 3:50.0 4:16.9 5:172.0 6:182.0 7:95.0 8:172.24 9:168.34 10:165.11 
-1.0 1:289.0 2:30.25 3:55.0 4:19.03 5:170.0 6:176.0 7:59.5 8:177.01 9:179.03 10:171.64 
-1.0 1:292.41 2:30.25 3:55.0 4:18.81 5:171.0 6:186.0 7:55.0 8:184.47 9:166.41 10:176.74 
-1.0 1:272.25 2:30.25 3:55.0 4:20.2 5:165.0 6:161.0 7:60.0 8:163.76 9:180.27 10:167.89 
-1.0 1:285.61 2:27.04 3:52.0 4:18.21 5:169.0 6:181.0 7:62.0 8:178.51 9:173.12 10:183.52 
-1.0 1:272.25 2:42.25 3:65.0 4:23.88 5:165.0 6:176.0 7:55.0 8:186.19 9:177.32 10:156.93 
-1.0 1:262.44 2:25.0 3:50.0 4:19.05 5:162.0 6:173.0 7:60.0 8:182.18 9:171.16 10:158.31 
-1.0 1:265.69 2:30.25 3:55.0 4:20.7 5:163.0 6:173.0 7:82.0 8:172.9 9:173.89 10:163.24 
-1.0 1:265.69 2:27.04 3:52.0 4:19.57 5:163.0 6:173.0 7:67.0 8:173.37 9:171.45 10:177.1 
-1.0 1:285.61 2:31.36 3:56.0 4:19.61 5:169.0 6:172.0 7:45.0 8:168.24 9:165.69 10:179.51 
-1.0 1:262.44 2:31.92 3:56.5 4:21.53 5:162.0 6:179.0 7:55.0 8:184.41 9:169.75 10:163.86 
-1.0 1:282.24 2:31.36 3:56.0 4:19.84 5:168.0 6:160.0 7:63.0 8:177.02 9:169.53 10:177.45 
