svm_type c_svc
kernel_type linear
nr_class 2
total_sv 214
rho -56.304451718479385
label 0 1
nr_sv 106 108
SV
1.0 1:289.0 2:28.09 3:53.0 4:18.34 5:170.0 6:166.0 7:51.0 8:170.74 9:165.71 10:172.34 
1.0 1:285.61 2:39.69 3:63.0 4:22.06 5:169.0 6:158.0 7:50.0 8:183.8 9:161.8 10:194.4 
1.0 1:272.25 2:40.32 3:63.5 4:23.32 5:165.0 6:200.0 7:61.0 8:183.14 9:167.96 10:174.78 
1.0 1:306.25 2:30.25 3:55.0 4:17.96 5:175.0 6:160.0 7:59.0 8:178.78 9:167.73 10:170.54 
1.0 1:320.41 2:33.64 3:58.0 4:18.1 5:179.0 6:160.0 7:60.0 8:180.29 9:167.21 10:188.0 
1.0 1:285.61 2:31.36 3:56.0 4:19.61 5:169.0 6:178.0 7:55.0 8:176.15 9:171.87 10:168.44 
1.0 1:282.24 2:30.25 3:55.0 4:19.49 5:168.0 6:172.0 7:62.0 8:172.71 9:173.28 10:175.43 
1.0 1:295.84 2:28.09 3:53.0 4:17.92 5:172.0 6:181.0 7:68.0 8:165.53 9:171.0 10:151.66 
1.0 1:302.76 2:37.21 3:61.0 4:20.15 5:174.0 6:163.0 7:64.0 8:170.6 9:170.05 10:191.81 
1.0 1:289.0 2:29.16 3:54.0 4:18.69 5:170.0 6:170.0 7:63.0 8:174.64 9:172.74 10:184.51 
1.0 1:282.24 2:33.64 3:58.0 4:20.55 5:168.0 6:156.0 7:57.0 8:159.76 9:175.63 10:157.65 
1.0 1:292.41 2:34.81 3:59.0 4:20.18 5:171.0 6:180.0 7:78.0 8:174.16 9:176.63 10:203.38 
1.0 1:302.76 2:27.04 3:52.0 4:17.18 5:174.0 6:166.0 7:75.0 8:170.51 9:164.31 10:179.47 
1.0 1:295.84 2:26.01 3:51.0 4:17.24 5:172.0 6:164.0 7:60.0 8:159.95 9:166.82 10:178.39 
1.0 1:289.0 2:33.64 3:58.0 4:20.07 5:170.0 6:163.0 7:49.0 8:161.37 9:164.68 10:164.89 
1.0 1:295.84 2:28.09 3:53.0 4:17.92 5:172.0 6:155.0 7:65.0 8:165.65 9:165.07 10:189.04 
1.0 1:272.25 2:42.25 3:65.0 4:23.88 5:165.0 6:160.0 7:70.0 8:186.85 9:172.62 10:152.63 
1.0 1:282.24 2:39.06 3:62.5 4:22.14 5:168.0 6:160.0 7:62.0 8:176.61 9:168.74 10:183.38 
1.0 1:324.0 2:49.0 3:70.0 4:21.6 5:180.0 6:166.0 7:70.0 8:186.98 9:163.82 10:160.7 
1.0 1:299.29 2:40.96 3:64.0 4:21.38 5:173.0 6:165.0 7:55.0 8:173.37 9:167.93 10:193.36 
1.0 1:265.69 2:38.44 3:62.0 4:23.34 5:163.0 6:182.0 7:47.5 8:169.29 9:177.38 10:185.77 
1.0 1:299.29 2:33.64 3:58.0 4:19.38 5:173.0 6:163.0 7:50.0 8:163.44 9:170.51 10:173.54 
1.0 1:282.24 2:28.09 3:53.0 4:18.78 5:168.0 6:160.0 7:54.0 8:147.59 9:170.8 10:164.67 
1.0 1:313.29 2:37.21 3:61.0 4:19.47 5:177.0 6:158.0 7:65.0 8:178.28 9:173.94 10:174.08 
1.0 1:295.84 2:30.25 3:55.0 4:18.59 5:172.0 6:163.0 7:42.0 8:173.45 9:169.5 10:201.67 
1.0 1:302.76 2:37.21 3:61.0 4:20.15 5:174.0 6:170.0 7:65.0 8:172.48 9:172.19 10:192.78 
1.0 1:289.0 2:28.09 3:53.0 4:18.34 5:170.0 6:178.0 7:53.0 8:163.44 9:175.08 10:174.65 
0.6096317224688298 1:278.89 2:30.25 3:55.0 4:19.72 5:167.0 6:163.0 7:54.0 8:169.37 9:169.03 10:177.5 
1.0 1:282.24 2:31.36 3:56.0 4:19.84 5:168.0 6:172.0 7:55.0 8:171.43 9:168.0 10:194.01 
1.0 1:309.76 2:37.21 3:61.0 4:19.69 5:176.0 6:163.0 7:72.0 8:170.23 9:181.33 10:187.79 
1.0 1:349.69 2:46.24 3:68.0 4:19.45 5:187.0 6:168.0 7:77.0 8:169.29 9:183.53 10:190.83 
1.0 1:324.0 2:38.44 3:62.0 4:19.14 5:180.0 6:173.0 7:60.0 8:168.4 9:165.68 10:166.48 
1.0 1:306.25 2:36.0 3:60.0 4:19.59 5:175.0 6:205.0 7:53.0 8:160.86 9:164.52 10:181.13 
1.0 1:275.56 2:33.64 3:58.0 4:21.05 5:166.0 6:181.0 7:68.0 8:169.48 9:173.86 10:162.32 
1.0 1:302.76 2:38.44 3:62.0 4:20.48 5:174.0 6:155.0 7:63.0 8:161.58 9:168.56 10:165.18 
1.0 1:282.24 2:38.44 3:62.0 4:21.97 5:168.0 6:185.0 7:51.0 8:151.99 9:170.88 10:179.05 
1.0 1:272.25 2:33.64 3:58.0 4:21.3 5:165.0 6:169.0 7:53.0 8:150.56 9:173.14 10:168.25 
1.0 1:282.24 2:56.25 3:75.0 4:26.57 5:168.0 6:178.0 7:46.0 8:153.68 9:164.74 10:201.96 
1.0 1:292.41 2:31.36 3:56.0 4:19.15 5:171.0 6:155.0 7:66.0 8:161.94 9:165.5 10:195.38 
1.0 1:299.29 2:43.56 3:66.0 4:22.05 5:173.0 6:180.0 7:62.0 8:185.02 9:171.51 10:172.1 
1.0 1:282.24 2:30.25 3:55.0 4:19.49 5:168.0 6:168.0 7:62.5 8:155.82 9:171.42 10:163.03 
1.0 1:268.96 2:50.41 3:71.0 4:26.4 5:164.0 6:163.0 7:98.0 8:173.26 9:175.9 10:162.77 
1.0 1:289.0 2:29.16 3:54.0 4:18.69 5:170.0 6:167.0 7:58.0 8:169.91 9:172.49 10:193.97 
1.0 1:334.89 2:46.24 3:68.0 4:20.31 5:183.0 6:155.0 7:75.0 8:174.64 9:171.44 10:194.11 
1.0 1:278.89 2:42.25 3:65.0 4:23.31 5:167.0 6:176.0 7:78.5 8:177.61 9:165.25 10:188.76 
1.0 1:295.84 2:32.49 3:57.0 4:19.27 5:172.0 6:174.0 7:70.0 8:170.43 9:167.44 10:152.71 
1.0 1:289.0 2:32.49 3:57.0 4:19.72 5:170.0 6:173.0 7:48.0 8:165.03 9:168.63 10:183.69 
1.0 1:278.89 2:38.44 3:62.0 4:22.23 5:167.0 6:167.0 7:68.0 8:187.03 9:163.09 10:165.28 
1.0 1:316.84 2:51.84 3:72.0 4:22.72 5:178.0 6:181.0 7:49.0 8:169.85 9:167.66 10:180.76 
1.0 1:299.29 2:31.36 3:56.0 4:18.71 5:173.0 6:186.0 7:53.0 8:164.43 9:173.05 10:197.83 
1.0 1:278.89 2:36.0 3:60.0 4:21.51 5:167.0 6:169.0 7:78.0 8:159.46 9:171.88 10:167.43 
1.0 1:295.84 2:29.7 3:54.5 4:18.42 5:172.0 6:178.0 7:71.0 8:178.89 9:171.44 10:176.7 
1.0 1:262.44 2:49.0 3:70.0 4:26.67 5:162.0 6:149.0 7:49.0 8:175.41 9:176.06 10:185.96 
1.0 1:289.0 2:36.0 3:60.0 4:20.76 5:170.0 6:160.0 7:50.0 8:168.91 9:173.11 10:153.58 
1.0 1:289.0 2:42.25 3:65.0 4:22.49 5:170.0 6:178.0 7:62.0 8:167.52 9:165.87 10:160.05 
1.0 1:302.76 2:36.0 3:60.0 4:19.82 5:174.0 6:150.0 7:68.0 8:157.38 9:172.98 10:196.9 
1.0 1:278.89 2:36.0 3:60.0 4:21.51 5:167.0 6:162.0 7:53.0 8:169.38 9:162.29 10:149.81 
1.0 1:289.0 2:30.25 3:55.0 4:19.03 5:170.0 6:174.0 7:51.0 8:194.35 9:182.62 10:187.34 
1.0 1:292.41 2:33.64 3:58.0 4:19.84 5:171.0 6:171.0 7:69.0 8:168.45 9:162.4 10:154.32 
1.0 1:299.29 2:29.16 3:54.0 4:18.04 5:173.0 6:169.0 7:61.0 8:176.12 9:167.55 10:181.38 
1.0 1:292.41 2:33.64 3:58.0 4:19.84 5:171.0 6:161.0 7:56.0 8:164.75 9:159.95 10:148.36 
1.0 1:268.96 2:39.69 3:63.0 4:23.42 5:164.0 6:176.0 7:52.0 8:172.09 9:161.19 10:180.72 
1.0 1:289.0 2:30.25 3:55.0 4:19.03 5:170.0 6:171.0 7:65.0 8:153.45 9:166.63 10:173.49 
1.0 1:278.89 2:38.44 3:62.0 4:22.23 5:167.0 6:173.0 7:57.0 8:171.92 9:173.9 10:179.38 
1.0 1:295.84 2:38.44 3:62.0 4:20.96 5:172.0 6:160.0 7:61.0 8:180.69 9:165.49 10:165.88 
1.0 1:289.0 2:32.49 3:57.0 4:19.72 5:170.0 6:169.0 7:55.0 8:156.15 9:168.47 10:171.04 
1.0 1:278.89 2:38.44 3:62.0 4:22.23 5:167.0 6:175.0 7:47.0 8:181.89 9:159.52 10:200.47 
1.0 1:289.0 2:32.49 3:57.0 4:19.72 5:170.0 6:165.0 7:55.0 8:162.75 9:171.5 10:186.47 
1.0 1:282.24 2:33.64 3:58.0 4:20.55 5:168.0 6:162.0 7:62.0 8:166.82 9:163.64 10:172.1 
0.7825667725276325 1:295.84 2:26.01 3:51.0 4:17.24 5:172.0 6:158.0 7:67.0 8:162.13 9:169.78 10:189.35 
1.0 1:275.56 2:33.64 3:58.0 4:21.05 5:166.0 6:177.0 7:43.0 8:174.91 9:175.55 10:198.1 
1.0 1:275.56 2:38.44 3:62.0 4:22.5 5:166.0 6:176.0 7:68.0 8:160.17 9:180.39 10:187.16 
1.0 1:295.84 2:30.25 3:55.0 4:18.59 5:172.0 6:158.0 7:53.0 8:170.97 9:164.52 10:180.66 
1.0 1:289.0 2:28.09 3:53.0 4:18.34 5:170.0 6:178.0 7:61.0 8:170.49 9:172.75 10:201.15 
1.0 1:289.0 2:36.0 3:60.0 4:20.76 5:170.0 6:167.0 7:62.0 8:179.07 9:163.09 10:157.37 
1.0 1:278.89 2:36.0 3:60.0 4:21.51 5:167.0 6:165.0 7:53.0 8:178.02 9:165.76 10:197.63 
1.0 1:289.0 2:36.0 3:60.0 4:20.76 5:170.0 6:175.0 7:65.0 8:165.57 9:176.31 10:166.68 
1.0 1:282.24 2:33.64 3:58.0 4:20.55 5:168.0 6:168.0 7:44.0 8:178.37 9:163.21 10:185.25 
1.0 1:275.56 2:38.44 3:62.0 4:22.5 5:166.0 6:173.0 7:70.0 8:168.36 9:174.89 10:153.11 
1.0 1:282.24 2:33.64 3:58.0 4:20.55 5:168.0 6:158.0 7:62.0 8:157.44 9:169.86 10:180.13 
1.0 1:295.84 2:26.01 3:51.0 4:17.24 5:172.0 6:175.0 7:67.0 8:162.75 9:179.17 10:165.52 
1.0 1:275.56 2:33.64 3:58.0 4:21.05 5:166.0 6:182.0 7:63.0 8:167.56 9:164.45 10:149.81 
0.27778675863418256 1:292.41 2:28.09 3:53.0 4:18.13 5:171.0 6:170.0 7:73.0 8:186.02 9:164.44 10:172.4 
1.0 1:289.0 2:31.36 3:56.0 4:19.38 5:170.0 6:174.0 7:50.0 8:170.05 9:162.61 10:179.34 
1.0 1:295.84 2:30.25 3:55.0 4:18.59 5:172.0 6:170.0 7:85.0 8:186.92 9:163.8 10:196.68 
1.0 1:289.0 2:28.09 3:53.0 4:18.34 5:170.0 6:173.0 7:48.0 8:180.21 9:168.21 10:164.84 
1.0 1:289.0 2:42.25 3:65.0 4:22.49 5:170.0 6:167.0 7:65.0 8:178.42 9:166.71 10:154.97 
1.0 1:275.56 2:29.16 3:54.0 4:19.6 5:166.0 6:178.0 7:48.0 8:173.29 9:179.25 10:163.84 
1.0 1:309.76 2:42.25 3:65.0 4:20.98 5:176.0 6:171.0 7:77.0 8:152.39 9:158.69 10:157.62 
1.0 1:285.61 2:29.16 3:54.0 4:18.91 5:169.0 6:166.0 7:54.0 8:162.55 9:166.21 10:189.68 
1.0 1:302.76 2:27.04 3:52.0 4:17.18 5:174.0 6:169.0 7:68.0 8:158.72 9:170.42 10:198.6 
1.0 1:282.24 2:30.25 3:55.0 4:19.49 5:168.0 6:178.0 7:58.0 8:155.34 9:170.31 10:153.22 
1.0 1:292.41 2:39.69 3:63.0 4:21.55 5:171.0 6:181.0 7:74.0 8:159.42 9:165.06 10:198.64 
1.0 1:306.25 2:30.25 3:55.0 4:17.96 5:175.0 6:179.0 7:52.0 8:177.53 9:165.91 10:177.54 
1.0 1:272.25 2:36.0 3:60.0 4:22.04 5:165.0 6:178.0 7:80.0 8:165.87 9:178.18 10:175.94 
1.0 1:285.61 2:31.36 3:56.0 4:19.61 5:169.0 6:178.0 7:42.5 8:171.17 9:164.13 10:186.85 
1.0 1:309.76 2:32.49 3:57.0 4:18.4 5:176.0 6:175.0 7:50.0 8:185.06 9:172.29 10:185.63 
1.0 1:256.0 2:49.0 3:70.0 4:27.34 5:160.0 6:168.0 7:44.0 8:168.63 9:171.82 10:157.65 
1.0 1:268.96 2:81.0 3:90.0 4:33.46 5:164.0 6:160.0 7:50.0 8:167.03 9:172.77 10:172.43 
1.0 1:272.25 2:34.81 3:59.0 4:21.67 5:165.0 6:168.0 7:55.0 8:178.61 9:161.16 10:171.76 
1.0 1:268.96 2:47.61 3:69.0 4:25.65 5:164.0 6:168.0 7:42.0 8:186.35 9:175.96 10:190.16 
1.0 1:278.89 2:30.25 3:55.0 4:19.72 5:167.0 6:172.0 7:43.0 8:179.95 9:178.37 10:155.35 
1.0 1:292.41 2:30.25 3:55.0 4:18.81 5:171.0 6:173.0 7:65.0 8:180.18 9:166.37 10:202.45 
1.0 1:289.0 2:30.25 3:55.0 4:19.03 5:170.0 6:187.0 7:50.0 8:189.41 9:170.49 10:171.55 
1.0 1:302.76 2:31.36 3:56.0 4:18.5 5:174.0 6:175.0 7:58.0 8:155.54 9:172.22 10:188.44 
0.7704129829700588 1:272.25 2:32.49 3:57.0 4:20.94 5:165.0 6:164.0 7:85.0 8:169.71 9:176.13 10:148.85 
-1.0 1:285.61 2:36.0 3:60.0 4:21.01 5:169.0 6:172.0 7:70.0 8:158.99 9:170.01 10:171.64 
-1.0 1:282.24 2:29.16 3:54.0 4:19.13 5:168.0 6:156.0 7:43.0 8:164.87 9:167.3 10:187.57 
-1.0 1:320.41 2:29.16 3:54.0 4:16.85 5:179.0 6:192.0 7:67.0 8:178.76 9:171.86 10:156.78 
-1.0 1:289.0 2:43.56 3:66.0 4:22.84 5:170.0 6:183.0 7:45.0 8:188.73 9:170.41 10:187.23 
-0.12002144383952204 1:295.84 2:43.56 3:66.0 4:22.31 5:172.0 6:176.0 7:72.0 8:167.03 9:159.03 10:204.81 
-1.0 1:309.76 2:30.25 3:55.0 4:17.76 5:176.0 6:166.0 7:60.0 8:148.26 9:162.41 10:203.77 
-1.0 1:287.303 2:29.16 3:54.0 4:18.8 5:169.5 6:168.0 7:45.0 8:156.01 9:172.47 10:199.48 
-1.0 1:282.24 2:38.44 3:62.0 4:21.97 5:168.0 6:178.0 7:48.0 8:172.46 9:170.46 10:171.22 
-1.0 1:272.25 2:38.44 3:62.0 4:22.77 5:165.0 6:162.0 7:55.0 8:180.71 9:172.5 10:152.99 
-1.0 1:282.24 2:27.04 3:52.0 4:18.42 5:168.0 6:165.0 7:51.0 8:163.63 9:160.75 10:170.73 
-1.0 1:302.76 2:30.25 3:55.0 4:18.17 5:174.0 6:166.0 7:67.0 8:167.49 9:162.31 10:203.16 
-1.0 1:289.0 2:29.16 3:54.0 4:18.69 5:170.0 6:175.0 7:48.0 8:169.84 9:164.4 10:172.73 
-1.0 1:272.25 2:30.25 3:55.0 4:20.2 5:165.0 6:178.0 7:53.0 8:183.15 9:174.9 10:163.65 
-1.0 1:289.0 2:36.0 3:60.0 4:20.76 5:170.0 6:176.0 7:64.0 8:162.69 9:167.63 10:164.12 
-1.0 1:295.84 2:31.36 3:56.0 4:18.93 5:172.0 6:168.0 7:52.0 8:179.54 9:174.27 10:173.96 
-1.0 1:282.24 2:32.49 3:57.0 4:20.2 5:168.0 6:158.0 7:65.0 8:170.85 9:177.99 10:191.51 
-1.0 1:295.84 2:33.64 3:58.0 4:19.61 5:172.0 6:168.0 7:59.0 8:177.28 9:174.55 10:163.87 
-1.0 1:289.0 2:42.25 3:65.0 4:22.49 5:170.0 6:175.0 7:51.0 8:199.84 9:171.07 10:152.68 
-1.0 1:256.0 2:23.04 3:48.0 4:18.75 5:160.0 6:180.0 7:60.0 8:153.12 9:175.58 10:165.62 
-1.0 1:289.0 2:38.44 3:62.0 4:21.45 5:170.0 6:162.0 7:54.0 8:158.5 9:161.84 10:179.93 
-1.0 1:313.29 2:30.25 3:55.0 4:17.56 5:177.0 6:186.0 7:68.0 8:158.61 9:164.02 10:176.56 
-1.0 1:292.41 2:34.81 3:59.0 4:20.18 5:171.0 6:178.0 7:70.0 8:174.06 9:163.65 10:163.83 
-1.0 1:320.41 2:31.36 3:56.0 4:17.48 5:179.0 6:161.0 7:60.5 8:176.4 9:162.44 10:149.34 
-1.0 1:289.0 2:30.25 3:55.0 4:19.03 5:170.0 6:183.0 7:49.0 8:168.24 9:167.4 10:149.45 
-1.0 1:289.0 2:38.44 3:62.0 4:21.45 5:170.0 6:165.0 7:70.0 8:164.42 9:173.44 10:155.76 
-1.0 1:289.0 2:37.21 3:61.0 4:21.11 5:170.0 6:170.0 7:71.0 8:174.98 9:162.95 10:199.3 
-1.0 1:295.84 2:36.0 3:60.0 4:20.28 5:172.0 6:159.0 7:55.0 8:155.46 9:169.12 10:159.64 
-1.0 1:292.41 2:33.64 3:58.0 4:19.84 5:171.0 6:168.0 7:65.0 8:165.2 9:172.9 10:177.27 
-1.0 1:299.29 2:37.21 3:61.0 4:20.38 5:173.0 6:160.0 7:51.0 8:158.51 9:160.2 10:173.75 
-1.0 1:289.0 2:44.89 3:67.0 4:23.18 5:170.0 6:179.0 7:50.0 8:201.18 9:165.56 10:199.29 
-1.0 1:282.24 2:43.56 3:66.0 4:23.38 5:168.0 6:168.0 7:52.0 8:173.8 9:168.86 10:191.49 
-1.0 1:295.84 2:36.0 3:60.0 4:20.28 5:172.0 6:181.0 7:46.0 8:176.52 9:164.48 10:161.82 
-1.0 1:295.84 2:36.0 3:60.0 4:20.28 5:172.0 6:168.0 7:49.0 8:175.78 9:171.3 10:163.11 
-1.0 1:292.41 2:40.96 3:64.0 4:21.89 5:171.0 6:175.0 7:75.0 8:181.74 9:162.74 10:175.49 
-1.0 1:282.24 2:39.69 3:63.0 4:22.32 5:168.0 6:185.0 7:78.0 8:178.1 9:168.25 10:150.36 
-1.0 1:357.21 2:25.0 3:50.0 4:14.0 5:189.0 6:160.0 7:75.0 8:164.66 9:172.37 10:180.16 
-1.0 1:282.24 2:29.16 3:54.0 4:19.13 5:168.0 6:162.0 7:58.0 8:166.99 9:162.1 10:174.9 
-0.026241146504586938 1:316.84 2:32.49 3:57.0 4:17.99 5:178.0 6:158.0 7:45.0 8:165.08 9:170.48 10:188.75 
-1.0 1:289.0 2:36.0 3:60.0 4:20.76 5:170.0 6:178.0 7:41.0 8:162.85 9:168.14 10:177.8 
-1.0 1:285.61 2:29.16 3:54.0 4:18.91 5:169.0 6:172.0 7:53.0 8:168.48 9:179.49 10:170.27 
-1.0 1:268.96 2:42.25 3:65.0 4:24.17 5:164.0 6:182.0 7:51.0 8:173.06 9:171.91 10:194.7 
-1.0 1:289.0 2:30.25 3:55.0 4:19.03 5:170.0 6:166.0 7:80.0 8:175.61 9:166.3 10:204.85 
-1.0 1:289.0 2:37.21 3:61.0 4:21.11 5:170.0 6:163.0 7:52.0 8:170.85 9:175.49 10:179.97 
-1.0 1:278.89 2:39.69 3:63.0 4:22.59 5:167.0 6:174.0 7:50.0 8:162.14 9:169.34 10:186.13 
-1.0 1:285.61 2:42.25 3:65.0 4:22.76 5:169.0 6:185.0 7:49.0 8:169.16 9:168.45 10:174.26 
-1.0 1:285.61 2:39.69 3:63.0 4:22.06 5:169.0 6:159.0 7:53.0 8:168.24 9:172.32 10:154.5 
-1.0 1:292.41 2:34.81 3:59.0 4:20.18 5:171.0 6:168.0 7:52.0 8:168.33 9:167.03 10:191.43 
-1.0 1:320.41 2:31.36 3:56.0 4:17.48 5:179.0 6:150.0 7:69.0 8:175.51 9:175.36 10:202.32 
-1.0 1:289.0 2:30.25 3:55.0 4:19.03 5:170.0 6:165.0 7:49.0 8:157.12 9:183.51 10:177.43 
-0.17352172402011837 1:420.25 2:169.0 3:130.0 4:30.93 5:205.0 6:165.0 7:48.0 8:169.49 9:165.46 10:171.96 
-1.0 1:272.25 2:36.0 3:60.0 4:22.04 5:165.0 6:161.0 7:78.0 8:164.62 9:171.98 10:197.39 
-1.0 1:282.24 2:32.49 3:57.0 4:20.2 5:168.0 6:158.0 7:67.0 8:167.38 9:169.12 10:177.08 
-1.0 1:275.56 2:32.49 3:57.0 4:20.69 5:166.0 6:174.0 7:56.0 8:173.43 9:163.75 10:160.39 
-1.0 1:282.24 2:27.04 3:52.0 4:18.42 5:168.0 6:171.0 7:47.0 8:180.2 9:164.61 10:202.07 
-1.0 1:292.41 2:39.69 3:63.0 4:21.55 5:171.0 6:181.0 7:69.0 8:172.11 9:168.86 10:191.43 
-1.0 1:289.0 2:33.64 3:58.0 4:20.07 5:170.0 6:170.0 7:47.0 8:174.93 9:168.19 10:187.08 
-1.0 1:282.24 2:36.0 3:60.0 4:21.26 5:168.0 6:160.0 7:65.0 8:161.47 9:170.65 10:193.23 
-1.0 1:289.0 2:28.09 3:53.0 4:18.34 5:170.0 6:148.0 7:62.0 8:163.17 9:172.05 10:157.9 
-1.0 1:275.56 2:33.06 3:57.5 4:20.87 5:166.0 6:168.0 7:50.0 8:183.3 9:171.88 10:157.59 
-1.0 1:295.84 2:36.0 3:60.0 4:20.28 5:172.0 6:178.0 7:47.0 8:167.97 9:182.53 10:167.38 
-0.342590704463307 1:302.76 2:36.0 3:60.0 4:19.82 5:174.0 6:178.0 7:50.0 8:167.98 9:174.14 10:190.73 
-1.0 1:282.24 2:30.25 3:55.0 4:19.49 5:168.0 6:164.0 7:65.0 8:162.23 9:166.6 10:195.45 
-1.0 1:272.25 2:56.25 3:75.0 4:27.55 5:165.0 6:178.0 7:75.0 8:155.29 9:161.71 10:178.28 
-1.0 1:272.25 2:36.0 3:60.0 4:22.04 5:165.0 6:175.0 7:70.0 8:167.3 9:167.96 10:175.96 
-1.0 1:289.0 2:36.0 3:60.0 4:20.76 5:170.0 6:164.0 7:65.0 8:166.7 9:166.52 10:158.32 
-1.0 1:316.84 2:30.25 3:55.0 4:17.36 5:178.0 6:164.0 7:67.0 8:193.64 9:181.2 10:156.47 
-1.0 1:289.0 2:30.25 3:55.0 4:19.03 5:170.0 6:164.0 7:75.0 8:181.16 9:174.37 10:151.85 
-1.0 1:289.0 2:37.21 3:61.0 4:21.11 5:170.0 6:173.0 7:50.0 8:169.07 9:168.03 10:189.55 
-1.0 1:295.84 2:36.0 3:60.0 4:20.28 5:172.0 6:170.0 7:63.5 8:160.11 9:169.48 10:148.95 
-1.0 1:292.41 2:33.64 3:58.0 4:19.84 5:171.0 6:169.0 7:80.0 8:179.2 9:166.45 10:187.49 
-1.0 1:292.41 2:25.0 3:50.0 4:17.1 5:171.0 6:165.0 7:49.0 8:161.32 9:170.24 10:202.27 
-1.0 1:313.29 2:30.25 3:55.0 4:17.56 5:177.0 6:167.0 7:56.0 8:151.87 9:164.8 10:187.48 
-1.0 1:299.29 2:36.0 3:60.0 4:20.05 5:173.0 6:175.0 7:48.0 8:185.87 9:172.96 10:194.91 
-1.0 1:289.0 2:30.25 3:55.0 4:19.03 5:170.0 6:172.0 7:54.0 8:180.47 9:178.36 10:154.37 
-1.0 1:295.84 2:37.21 3:61.0 4:20.62 5:172.0 6:172.0 7:48.0 8:155.7 9:163.81 10:189.03 
-1.0 1:289.0 2:32.49 3:57.0 4:19.72 5:170.0 6:187.0 7:50.0 8:172.88 9:167.57 10:159.85 
-1.0 1:285.61 2:39.69 3:63.0 4:22.06 5:169.0 6:165.0 7:75.0 8:170.82 9:168.68 10:203.05 
-1.0 1:278.89 2:34.81 3:59.0 4:21.16 5:167.0 6:185.0 7:67.0 8:173.29 9:177.5 10:182.07 
-1.0 1:306.25 2:31.36 3:56.0 4:18.29 5:175.0 6:186.0 7:55.0 8:166.82 9:178.75 10:174.17 
-1.0 1:289.0 2:42.25 3:65.0 4:22.49 5:170.0 6:164.0 7:67.0 8:166.88 9:168.55 10:186.09 
-1.0 1:272.25 2:30.25 3:55.0 4:20.2 5:165.0 6:183.0 7:55.0 8:174.14 9:172.09 10:185.63 
-1.0 1:295.84 2:36.0 3:60.0 4:20.28 5:172.0 6:170.0 7:50.0 8:186.94 9:178.55 10:193.42 
-1.0 1:272.25 2:27.04 3:52.0 4:19.1 5:165.0 6:163.0 7:70.0 8:168.69 9:158.37 10:170.46 
-1.0 1:278.89 2:37.21 3:61.0 4:21.87 5:167.0 6:170.0 7:72.0 8:170.53 9:169.47 10:203.46 
-1.0 1:289.0 2:51.84 3:72.0 4:24.91 5:170.0 6:170.0 7:130.0 8:166.87 9:167.14 10:192.34 
-1.0 1:285.61 2:39.69 3:63.0 4:22.06 5:169.0 6:170.0 7:76.0 8:168.59 9:168.18 10:201.19 
-1.0 1:278.89 2:34.81 3:59.0 4:21.16 5:167.0 6:159.0 7:68.0 8:183.32 9:172.62 10:166.53 
-1.0 1:289.0 2:42.25 3:65.0 4:22.49 5:170.0 6:163.0 7:63.0 8:170.98 9:169.9 10:188.19 
-1.0 1:295.84 2:36.0 3:60.0 4:20.28 5:172.0 6:162.0 7:55.0 8:175.75 9:178.39 10:178.8 
-1.0 1:272.25 2:39.69 3:63.0 4:23.14 5:165.0 6:170.0 7:60.0 8:170.56 9:167.83 10:197.43 
-1.0 1:282.24 2:40.96 3:64.0 4:22.68 5:168.0 6:178.0 7:55.0 8:163.3 9:171.88 10:153.79 
-1.0 1:265.69 2:46.24 3:68.0 4:25.59 5:163.0 6:184.0 7:50.0 8:167.04 9:171.47 10:172.22 
-0.7780232177731768 1:302.76 2:38.44 3:62.0 4:20.48 5:174.0 6:168.0 7:67.0 8:186.87 9:176.37 10:200.76 
-1.0 1:282.24 2:36.0 3:60.0 4:21.26 5:168.0 6:180.0 7:75.0 8:181.14 9:172.1 10:161.6 
-1.0 1:289.0 2:38.44 3:62.0 4:21.45 5:170.0 6:170.0 7:70.0 8:158.55 9:167.45 10:171.64 
-1.0 1:272.25 2:51.84 3:72.0 4:26.45 5:165.0 6:165.0 7:58.0 8:176.98 9:175.73 10:152.28 
-1.0 1:289.0 2:29.16 3:54.0 4:18.69 5:170.0 6:170.0 7:60.0 8:174.45 9:173.97 10:172.04 
-1.0 1:289.0 2:36.0 3:60.0 4:20.76 5:170.0 6:165.0 7:50.0 8:165.49 9:168.84 10:155.39 
-1.0 1:282.24 2:29.16 3:54.0 4:19.13 5:168.0 6:163.0 7:49.0 8:174.7 9:171.6 10:154.91 
-1.0 1:299.29 2:39.69 3:63.0 4:21.05 5:173.0 6:155.0 7:81.7 8:169.72 9:167.59 10:180.93 
-1.0 1:299.29 2:36.0 3:60.0 4:20.05 5:173.0 6:160.0 7:60.0 8:159.05 9:159.75 10:192.12 
-1.0 1:289.0 2:36.0 3:60.0 4:20.76 5:170.0 6:167.0 7:48.0 8:170.24 9:173.53 10:154.42 
-1.0 1:299.29 2:28.09 3:53.0 4:17.71 5:173.0 6:157.0 7:51.0 8:163.18 9:183.54 10:177.54 
-1.0 1:272.25 2:50.41 3:71.0 4:26.08 5:165.0 6:181.0 7:57.0 8:171.01 9:162.88 10:202.22 
-1.0 1:302.76 2:34.81 3:59.0 4:19.49 5:174.0 6:170.0 7:75.0 8:165.57 9:156.55 10:176.39 
-1.0 1:282.24 2:46.24 3:68.0 4:24.09 5:168.0 6:165.0 7:63.0 8:151.88 9:166.04 10:152.68 
-1.0 1:299.29 2:24.01 3:49.0 4:16.37 5:173.0 6:162.0 7:49.0 8:175.17 9:166.41 10:204.77 
-1.0 1:320.41 2:29.16 3:54.0 4:16.85 5:179.0 6:176.0 7:55.0 8:166.79 9:167.29 10:167.16 
